,0
0,"[[ 1.75885558e-01 -2.28660136e-01  4.22559716e-02 -2.17619017e-01
   8.81083831e-02  1.03742325e+00 -5.38607948e-02 -6.17461987e-02
  -9.30673659e-01 -2.74408102e-01  8.45253468e-02  9.55929756e-01
  -5.17417192e-02 -3.70331258e-02 -5.81214309e-01 -1.82184344e-03
  -4.84878600e-01 -3.17064039e-02 -3.38425905e-01  7.30077103e-02
  -1.34128064e-01 -1.77260727e-01 -2.18490399e-02 -8.71258527e-02]
 [-1.48285747e-01 -3.17413509e-01 -3.73890907e-01  3.31467539e-02
  -1.30138649e-02  5.69233358e-01  3.51823717e-02  1.12739369e-01
  -2.51994282e-01 -2.06700712e-01 -1.35067880e-01  3.70257437e-01
   6.84208989e-01  9.67683196e-02 -3.53601009e-01 -1.61439093e-04
   2.50261813e-01  2.54430175e-02 -4.32494134e-01 -2.38408372e-01
   8.62926692e-02 -2.48499010e-02  6.64912630e-03 -2.41269380e-01]
 [-2.97340059e+00 -3.72234535e+00 -3.73636603e+00  2.54073739e+00
  -3.66742671e-01 -7.21023500e-01  2.09511995e+00 -6.70178235e-01
   3.34847689e+00 -1.21197379e+00  6.83312595e-01  1.08627641e+00
   3.36520481e+00 -2.61458576e-01 -2.82341385e+00 -6.63929507e-02
   1.13852644e+00 -2.40530923e-01  1.80765378e+00 -8.72912526e-01
  -7.55072013e-02  7.71599263e-02  1.24186344e-01 -9.21093047e-01]
 [-3.98091942e-01 -3.44941497e-01 -3.28499585e-01  1.69980273e-01
   6.76070228e-02  2.24757642e-01  2.65776366e-01  9.43436176e-02
   1.86147809e-01 -2.38671944e-01  1.48164830e-03  3.09411526e-01
   1.01741183e+00  9.60576311e-02 -4.57869202e-01 -1.54045686e-01
   4.37731951e-01  5.69863506e-02  8.07823092e-02 -2.47877046e-01
  -1.22444540e-01  5.76645806e-02 -7.64280232e-03 -2.44109914e-01]]"
1,"[-0.5736027  -1.1926719  -1.1651716  -0.80889285 -0.404872   -1.6477628
  0.37635776 -0.2220988  -0.7531089  -0.28014988 -0.42798245 -2.113485
 -0.9361416  -0.20347993 -1.015263    1.4109159  -0.6877588  -0.20194556
 -1.3347919  -0.62398386 -0.5458682   1.4171087  -0.0766836   0.1889078 ]"
2,"[[-1.49848044e+00 -7.91177034e-01 -1.34222972e+00 -4.23665881e-01
  -6.36308134e-01 -1.25577882e-01 -6.87243521e-01 -1.12026346e+00
  -1.58424661e-01 -2.41998339e+00 -7.09788322e-01  8.01230788e-01
  -7.28390992e-01 -6.80813730e-01 -9.74259794e-01 -3.83004278e-01
  -5.62488556e-01  3.99256647e-02  1.02797484e+00  6.96290210e-02
   6.89291596e-01 -7.77586251e-02  1.50584627e-03 -9.52590525e-01]
 [ 3.89730096e+00  2.54228525e-02 -1.83231974e+00  1.26602173e+00
   2.43903428e-01 -1.31444316e-02  5.68389893e-01  3.86003345e-01
   1.20295537e+00 -2.81354040e-01 -7.48439848e-01 -9.39139724e-02
  -9.52135801e-01 -2.92941451e-01 -7.43829131e-01 -4.07540202e-01
  -1.04151416e+00 -9.29261297e-02  3.63583416e-01 -1.14676547e+00
   1.86433804e+00 -1.63798407e-01 -8.09423387e-01 -2.06724215e+00]
 [ 3.16353464e+00 -9.88631129e-01  2.49164879e-01 -2.17552066e-01
   5.93753695e-01 -1.60448238e-01 -1.25889897e+00 -5.33371568e-01
  -6.14203930e-01 -5.00670969e-01 -5.59653640e-01  1.10297658e-01
  -1.50144517e-01 -1.23687041e+00  2.32255057e-01 -2.34011352e-01
  -1.66431201e+00 -2.67317474e-01 -5.26617408e-01 -1.12584388e+00
   5.94819784e-01  1.09853670e-02 -9.34512079e-01 -2.10024047e+00]
 [-3.85059881e+00 -1.33512449e+00  2.16624007e-01 -1.75008762e+00
  -3.39548141e-01 -3.82137626e-01 -7.31503665e-01 -1.86744973e-01
  -8.32377136e-01  3.05102229e-01 -2.11739272e-01 -1.85817707e+00
  -3.95346880e-01 -1.45567191e+00 -7.29505122e-01  1.89125180e-01
  -4.95199740e-01  5.95714934e-02 -3.37576807e-01  6.58866405e-01
   1.81049883e-01 -1.83201879e-01  4.77186859e-01 -1.02231257e-01]
 [ 4.29143041e-01  1.87645301e-01  1.74884751e-01 -5.58341920e-01
  -1.49471730e-01 -3.99951339e-01 -8.70754048e-02 -1.88584715e-01
  -5.32600224e-01 -3.10374916e-01 -7.05024123e-01 -1.00360274e-01
  -3.49115610e-01  1.02032781e-01 -1.01353621e+00 -6.35789183e-04
   3.38489801e-01  3.10279541e-02 -3.65121484e-01 -1.01319838e+00
  -5.99204838e-01 -1.35411546e-01 -1.30834818e+00 -3.72709811e-01]
 [-3.59205794e+00 -7.38852203e-01 -1.15198612e+00  1.43583810e+00
   1.61021173e-01 -4.15750034e-02 -8.08462739e-01 -9.14575532e-02
   4.01296727e-02 -1.11614406e+00 -1.26337424e-01  4.40724730e-01
  -2.00163841e-01 -7.92350531e-01  8.20422351e-01  1.44233361e-01
  -1.83053482e+00 -9.21413600e-02  3.83162588e-01  2.98035234e-01
   8.31385016e-01 -5.99618815e-02 -3.50631088e-01 -8.50069821e-01]
 [-1.38547325e+00 -7.36165881e-01  1.06845172e-02 -3.59659219e+00
  -3.30107450e-01 -4.30689007e-01 -5.90068877e-01  9.71825123e-02
  -6.87092960e-01 -7.79160038e-02 -6.70179307e-01 -1.65326631e+00
  -3.87346298e-02 -7.73849070e-01 -2.56360471e-01 -3.13301772e-01
  -1.54766589e-01  4.16818447e-02 -2.38431501e+00 -9.27051544e-01
  -1.62241399e+00 -3.80757600e-01 -4.80771482e-01  9.94469598e-02]
 [ 7.77362585e-02  3.47329885e-01  6.92264363e-02  1.14460193e-01
  -1.82845891e-01 -3.90595138e-01  1.29652500e-01 -7.32978731e-02
   9.86238569e-02 -2.15308554e-02 -1.04913086e-01 -4.99596983e-01
  -1.83629766e-01 -2.32190803e-01 -2.15618350e-02  9.97903720e-02
  -2.24569559e-01  1.94135696e-01 -5.34968555e-01  5.24672642e-02
   3.73900570e-02  1.90487146e-04 -1.43862814e-01 -1.26545027e-01]
 [-5.04413176e+00 -2.46861219e+00  1.60577640e-01 -1.26314867e+00
  -9.15191054e-01 -4.18805361e-01  5.33647016e-02 -4.31944519e-01
  -5.85541070e-01  1.10784627e-01 -2.07945064e-01 -1.91538286e+00
  -1.56109720e-01 -2.22166967e+00 -5.00406444e-01 -2.29400739e-01
  -1.40228283e+00 -4.00587261e-01 -8.72195125e-01  8.86071682e-01
  -1.98644213e-02 -3.59464407e-01  8.04470837e-01 -3.32590491e-01]
 [ 1.04533613e+00 -1.71578431e-03 -1.81908667e-01 -2.60070658e+00
  -4.89328921e-01 -4.39305991e-01 -1.08635902e-01 -6.22999609e-01
  -6.88419640e-01 -4.25638944e-01 -9.44078267e-02 -5.28423786e-01
  -5.58678150e-01  2.81213950e-02 -1.22873485e+00 -3.38007770e-02
  -2.88538545e-01 -1.59456775e-01  3.41695875e-01 -2.21545681e-01
   7.83827364e-01  1.48132397e-02  3.77343297e-01  2.27921486e-01]
 [-4.55560237e-01 -2.18620345e-01 -3.11894566e-01 -6.64016083e-02
  -2.25510687e-01 -4.92386259e-02  5.92798367e-02 -4.51660126e-01
  -3.32229018e-01  1.74997583e-01  2.60607868e-01 -1.19892132e+00
  -2.17443362e-01  3.23910296e-01  2.32154861e-01  2.20149890e-01
   2.91292761e-02  5.12270583e-03 -5.45850396e-01  5.68217635e-01
   8.01563382e-01 -1.76903382e-01 -2.96969503e-01  1.76733494e-01]
 [-4.26520437e-01 -1.20643771e+00 -2.42570296e-01  1.70757234e-01
  -5.13417780e-01 -3.15950185e-01 -7.64320970e-01 -5.12196839e-01
  -1.39210280e-02  1.78516254e-01 -6.87952191e-02 -4.45500873e-02
  -2.04821527e-01 -7.40014195e-01 -4.66830760e-01  1.25507727e-01
  -1.49190998e+00  1.56830400e-01 -3.02365154e-01 -2.26745272e+00
   2.18264651e+00 -2.56525189e-01 -2.26383615e+00 -3.28268200e-01]
 [-3.63231778e+00 -2.19695473e+00  1.04612625e+00 -2.53131747e+00
  -1.73329458e-01  1.57038286e-01 -4.13963735e-01 -1.59564817e+00
  -7.95338571e-01  4.17136610e-01 -1.84350923e-01 -1.68368280e+00
  -5.45373023e-01 -9.77754772e-01  7.17939794e-01 -2.58153468e-01
  -4.36857462e-01 -2.88021237e-01 -1.15192223e+00  2.68075764e-01
  -3.29270005e-01  7.10611814e-04  7.12029278e-01 -5.80621600e-01]
 [-4.73322868e-01  2.54368305e-01 -5.53535581e-01  1.40975609e-01
  -6.49793744e-02  1.54403940e-01 -7.49519914e-02 -1.08112441e-02
  -1.83592200e-01 -1.79389521e-01  4.90293279e-02 -6.21197999e-01
  -2.83293843e-01  1.98551476e-01  4.26420420e-02  7.85078183e-02
  -9.61987674e-02 -2.46885851e-01 -4.58384067e-01 -6.54184148e-02
   5.82480073e-01  1.60273179e-01  7.59018287e-02 -2.64211208e-01]
 [-1.02263165e+00  5.03783226e-02 -5.61322927e+00 -1.03988791e+00
   1.67297423e-01 -2.85209000e-01 -1.27041090e+00 -6.78038538e-01
   6.77393794e-01 -4.18647337e+00 -7.51744032e-01  7.55894780e-02
  -3.67908627e-01 -5.71687222e-01  1.93788737e-01 -2.97350049e-01
  -7.42147446e-01 -2.42122680e-01 -3.44226271e-01 -3.89418364e-01
  -6.01664856e-02 -1.24877691e-02 -8.49488676e-01 -8.91130149e-01]
 [ 1.01699054e+00  3.76399785e-01 -1.14918789e-02 -2.95125932e-01
   1.11894779e-01 -2.20103152e-02 -1.51109040e-01 -2.42992043e-01
  -4.70221452e-02 -5.94351947e-01 -1.32239208e-01  5.40659316e-02
  -6.86909407e-02  4.64345634e-01 -8.75353694e-01 -5.17244697e-01
   2.07469761e-01 -2.17720494e-01 -2.40496770e-01 -1.97905672e+00
  -1.01190948e+00 -5.35852741e-03 -1.95702219e+00  2.51884311e-01]
 [-1.91788304e+00 -2.62155473e-01 -1.22777544e-01 -7.53447115e-01
  -7.15821326e-01  1.55975819e-01  3.28022763e-02 -3.08326423e-01
  -1.07527792e+00 -1.48917511e-01 -2.10062832e-01 -1.43312961e-01
  -1.71123266e-01 -1.01444922e-01 -1.04692030e+00  1.59138858e-01
  -2.33783619e-03 -8.18336830e-02 -1.14809312e-02 -4.25148100e-01
   1.08574569e-01  5.51432930e-02  4.99986969e-02 -8.14131021e-01]
 [ 4.20405297e-03  8.03957656e-02 -8.63057654e-03  3.63932699e-01
  -3.16789858e-02  9.71329398e-03 -1.97340086e-01 -2.26280332e-01
  -2.20683634e-01 -3.35438341e-01 -3.87481481e-01 -2.34692693e-02
  -1.89743668e-01  4.19632792e-02 -5.95218055e-02  2.57450193e-01
  -1.32162735e-01  1.50814697e-01 -1.43801734e-01 -1.19545400e+00
  -1.11273065e-01  1.28161207e-01 -2.45044753e-01  1.12054497e-01]
 [-1.57962883e+00 -7.35806763e-01  3.64891440e-01 -1.23883247e+00
  -3.63211840e-01  2.92583909e-02 -5.65629043e-02 -2.51422942e-01
  -1.58471024e+00  5.73547125e-01 -5.43061674e-01 -4.85988587e-01
  -1.99786544e-01 -6.05146587e-01 -5.40905952e-01 -1.49065644e-01
   2.43919954e-01  1.94650844e-01  4.20270741e-01  1.12033200e+00
   6.75760388e-01 -3.22663575e-01  1.58379436e+00  2.12466225e-01]
 [ 4.69572276e-01  1.57139048e-01 -4.08980221e-01  1.07677609e-01
  -3.50480556e-01  7.56581798e-02 -2.93229431e-01 -6.97042942e-02
   2.64022380e-01 -1.29178703e-01 -6.75290897e-02 -1.36399299e-01
   2.64237791e-01 -1.74410001e-03 -4.65398222e-01 -1.38766110e-01
  -1.69117481e-01  5.14730886e-02 -1.29108608e-01 -1.12538755e+00
  -2.16946691e-01 -2.68195957e-01 -1.34411108e+00  4.10015106e-01]
 [ 5.23074493e-02 -1.66179880e-01 -1.32811472e-01 -2.12964397e-02
  -3.21233422e-01  1.62125885e-01 -3.65760364e-02  3.08123887e-01
   3.33119243e-01  5.60002089e-01  2.56871581e-01  7.56657839e-01
   7.04729483e-02  2.57145435e-01 -2.36301929e-01  1.52111381e-01
   4.13389169e-02  4.03399318e-01  4.44348663e-01  5.84164374e-02
   7.90133178e-01 -3.41772258e-01 -1.79697558e-01 -7.45919943e-02]
 [ 1.21452796e+00  5.00516474e-01 -2.07319230e-01 -4.77303565e-01
  -4.22072440e-01  4.01174352e-02  2.27842063e-01 -1.24228649e-01
  -3.19034487e-01 -6.70909345e-01 -1.60158932e-01 -4.62958813e-02
  -2.65563786e-01  3.55390429e-01 -4.93238062e-01 -4.56215322e-01
   2.94956088e-01  8.09932500e-02  1.11154355e-01 -1.16154408e+00
  -2.28527173e-01 -3.29659283e-01 -4.15490508e-01  5.54486215e-01]
 [ 2.43518986e-02 -2.35267550e-01 -6.75898910e-01  2.20291302e-01
   2.81237692e-01  1.72193181e-02  1.41709432e-01  2.60664910e-01
  -9.78747383e-02  2.18624383e-01  1.59499153e-01 -7.35632479e-01
  -2.26397991e-01 -1.40113175e-01 -2.67784774e-01 -2.72360623e-01
   1.68796226e-01  1.60972569e-02 -3.96331996e-01  1.62104160e-01
   9.77527276e-02  1.66679680e-01  6.31702915e-02  2.61346042e-01]
 [ 9.76854563e-01 -3.28214141e-03 -5.40780187e-01 -3.80409813e+00
  -1.59827903e-01 -2.81727575e-02 -6.38584197e-01 -4.20566231e-01
  -4.66656625e-01 -4.11913067e-01 -2.60029376e-01 -1.09324050e+00
  -4.76976961e-01 -6.97184773e-03 -1.22432280e+00 -5.36609590e-02
   1.98623672e-01 -8.71001929e-02 -1.94136643e+00 -3.68272632e-01
  -3.06844413e-01  1.59148023e-01 -4.14724678e-01  1.64258063e-01]]"
3,"[-0.6064383   2.80261     0.15147895  1.5693752  -0.3486458  -0.13502298
  2.5774748   0.19463028 -0.58928466 -0.00304992  0.2059578  -0.76696604
  0.28381386  2.8889122   0.53573054 -0.22023608  2.809937   -0.0989799
 -0.4075756   0.311953   -1.4851005  -0.12927313  0.30837947  2.9550848 ]"
4,"[[-1.1889012e+00 -1.0627482e+00]
 [ 1.3094245e+00  8.2298130e-01]
 [-7.5581384e-01  5.8775580e-01]
 [ 1.2457013e+00  1.8091066e-01]
 [-2.5493115e-01  4.7361332e-01]
 [ 4.8592126e-01 -1.3058116e-01]
 [ 6.0059685e-01  1.0352314e+00]
 [ 2.0789590e-02 -2.7869377e-02]
 [-4.0262240e-01  4.4841132e-01]
 [-1.5040342e+00  5.5317533e-01]
 [ 1.7034488e-02 -1.1875109e-03]
 [-4.5412675e-01 -1.0730617e+00]
 [ 2.8970284e-02  1.8558668e-02]
 [ 1.2611896e+00  1.0003209e+00]
 [ 3.6285719e-01  1.1623139e-01]
 [-4.1842043e-01 -2.7696019e-01]
 [ 1.2239252e+00  1.4454920e+00]
 [-5.6786207e-03 -3.6247042e-03]
 [ 3.1666473e-01 -4.5718208e-01]
 [-9.7907108e-01 -2.2994683e+00]
 [-1.2725475e+00 -6.0753065e-01]
 [-7.1440376e-02 -2.8825852e-01]
 [-2.9142559e+00 -1.2239490e+00]
 [ 1.1636728e+00  1.2097714e+00]]"
5,[2.7964358 3.3151224]
